------------------------------------------------------------
 E - Electric Field
------------------------------------------------------------
Position (um), Electric Field (V/cm)
                   0,   -0.000855013203521
      0.487971470245,   -0.000855013204028
      0.951544366978,   -0.000855013204685
       1.39193861887,   -0.000855013204682
       1.81031315818,   -0.000855013204847
       2.20776897051,   -0.000855013205032
       2.58535199223,   -0.000855013204881
       2.94405586287,   -0.000855013204763
       3.28482453997,   -0.000855013204191
       3.60855478322,   -0.000855013202423
        3.9160985143,   -0.000855013198769
       4.20826505883,   -0.000855013192952
       4.48582327613,   -0.000855013182531
       4.74950358257,   -0.000855013165584
       4.99999987369,   -0.000855013138826
       5.25024593471,   -0.000855013095069
       5.48797969268,   -0.000855013028531
       5.71382676274,   -0.000855012927856
       5.92838147931,   -0.000855012779973
       6.13220846005,   -0.000855012568175
       6.32584409175,   -0.000855012270862
       6.50979794186,   -0.000855011861603
       6.68455409947,   -0.000855011306547
        6.8505724492,   -0.000855010569203
       7.00828988145,   -0.000855009605384
       7.15812144208,    -0.00085500836449
       7.30046142468,   -0.000855006792009
       7.43568440815,   -0.000855004826641
       7.56414624244,   -0.000855002402492
       7.68618498502,   -0.000854999451491
       7.80212179047,   -0.000854995905607
       7.91226175565,   -0.000854991691883
       8.01689472257,   -0.000854986740649
       8.11629604115,    -0.00085498098476
       8.21072729379,   -0.000854974358602
       8.30043698381,   -0.000854966802772
       8.38566118932,   -0.000854958266977
       8.46662418456,   -0.000854948708542
       8.54353903003,   -0.000854938086924
       8.61660813323,   -0.000854926379908
       8.68602378128,   -0.000854913571863
       8.75196864691,   -0.000854899653065
       8.81461626927,   -0.000854884635009
       8.87413151051,    -0.00085486853023
       8.93067098969,   -0.000854851363138
       8.98438349491,   -0.000854833172542
       9.03541037487,   -0.000854813993414
       9.08388591083,    -0.00085479388214
       9.12993766999,   -0.000854772882757
       9.17368684119,   -0.000854750966269
       9.21524855383,   -0.000854727773152
       9.25473218085,   -0.000854701332627
       9.29224162651,   -0.000854662691523
       9.32787559988,     -0.0008545747382
       9.36172787459,   -0.000854294247003
       9.39388753557,   -0.000853303351547
       9.42443921349,   -0.000849843348407
       9.45346330752,   -0.000838292008394
       9.48103619685,   -0.000801696000754
       9.50723044171,   -0.000691739017694
       9.53211497433,   -0.000378020820907
       9.55575528031,   -0.000473387157614
         9.578213571,    -0.00267541458494
       9.59954894715,    -0.00811300045797
        9.6198175545,     -0.0209566844031
       9.63907273148,     -0.0500276413612
       9.65736514961,      -0.113193605019
       9.67474294683,      -0.245173803978
       9.69125185419,      -0.510794948055
       9.70693531618,       -1.02655588245
       9.72183460508,       -1.99426768043
       9.73598892953,       -3.75142236534
       9.74943553775,        -6.8436246717
       9.76220981557,       -12.1246487251
       9.77434537949,       -20.8891486135
       9.78587416522,        -35.041407347
       9.79682651166,        -57.300373945
       9.80723124078,       -91.4362311607
       9.81711573345,       -142.526518011
       9.82650600148,       -217.210210126
       9.83542675611,       -323.906300832
       9.84390147301,       -472.950206049
       9.85195245406,       -676.588838828
       9.85960088606,       -948.767319003
       9.86686689646,       -1304.64280856
       9.87376960634,       -1759.78093953
       9.88032718072,       -2329.03369438
       9.88655687639,       -3025.16515608
       9.89247508728,        -3857.3739145
       9.89809738761,       -4829.93600433
       9.90343857294,       -5941.22888526
       9.90851269899,       -7183.36702088
       9.91333311875,       -8542.57484916
       9.91791251751,       -10000.2665867
       9.92226294634,       -11534.6445162
       9.92639585373,       -13122.5233333
       9.93032211574,       -14741.0707692
       9.93405206466,       -16369.2199806
       9.93759551613,       -17988.6223041
       9.94096179503,       -19584.1253555
       9.94415975998,       -21143.8476295
       9.94719782668,         -22658.96383
       9.95008399005,       -24123.3200736
       9.95282584525,       -25532.9787919
       9.95543060769,       -26885.7640758
       9.95790513201,       -28180.8497194
       9.96025593011,        -29418.409618
       9.96248918831,       -30599.3348493
        9.9646107836,       -31725.0128417
       9.96662629912,       -32797.1598513
       9.96854103887,       -33817.6968015
       9.97036004163,       -34788.6590768
       9.97208809425,       -35712.1321582
       9.97372974424,       -36590.2065122
       9.97528931173,       -37424.9465869
       9.97677090085,        -38218.370013
       9.97817841051,       -38972.4341043
       9.97951554469,       -39689.0275356
       9.98078582215,       -40369.9656583
       9.98199258575,       -41016.9883525
       9.98313901117,       -41631.7596273
       9.98422811531,       -42215.8684115
       9.98526276425,       -42770.8301416
       9.98624568074,       -43298.0888678
        9.9871794514,       -43799.0196828
       9.98806653354,       -44274.9313377
       9.98890926156,       -44727.0689494
       9.98970985319,       -45156.6167331
       9.99047041523,       -45564.7007152
       9.99119294917,       -45952.3913957
       9.99187935642,       -46320.7063407
        9.9925314433,       -46670.6126901
       9.99315092584,       -47003.0295752
       9.99373943425,       -47318.8304398
       9.99429851724,       -47618.8452642
       9.99482964608,       -47903.8626932
       9.99533421848,       -48174.6320668
       9.99581356226,       -48431.8653584
       9.99626893885,       -48676.2390224
       9.99670154661,       -48908.3957532
       9.99711252398,       -49128.9461611
       9.99750295249,       -49338.4703656
       9.99787385957,       -49537.5195127
       9.99822622129,       -49726.6172174
       9.99856096493,       -49906.2609347
       9.99887897139,       -50076.9232644
       9.99918107752,       -50239.0531902
       9.99946807835,       -50393.0772585
       9.99974072913,       -50539.4006979
       9.99999974738,       -50608.9045475
       10.0000001659,       -50608.7922321
       10.0000006305,       -50608.5428919
       10.0000011463,       -50608.2661244
       10.0000017187,       -50607.9589123
       10.0000023541,       -50607.6179067
       10.0000030594,       -50607.2393907
       10.0000038423,        -50606.819238
       10.0000047113,       -50606.3528685
       10.0000056759,       -50605.8351982
       10.0000067466,       -50605.2605842
       10.0000079351,       -50604.6227629
       10.0000092543,        -50603.914781
       10.0000107186,       -50603.1289212
        10.000012344,       -50602.2566168
       10.0000141482,        -50601.288359
       10.0000161508,       -50600.2135929
       10.0000183738,       -50599.0206025
       10.0000208413,       -50597.6963832
       10.0000235801,       -50596.2264999
       10.0000266203,       -50594.5949294
       10.0000299949,       -50592.7838863
       10.0000337407,       -50590.7736285
       10.0000378985,       -50588.5422425
       10.0000425137,       -50586.0654043
       10.0000476366,       -50583.3161139
       10.0000533229,       -50580.2644019
       10.0000596348,       -50576.8770018
        10.000066641,       -50573.1169881
       10.0000744178,       -50568.9433733
       10.0000830502,       -50564.3106614
        10.000092632,       -50559.1683518
       10.0001032679,       -50553.4603891
       10.0001150737,       -50547.1245514
       10.0001281782,       -50540.0917727
       10.0001427241,         -50532.28539
       10.0001588701,        -50523.620307
       10.0001767922,       -50514.0020672
       10.0001966857,       -50503.3258238
       10.0002187675,       -50491.4751972
       10.0002432783,       -50478.3210059
       10.0002704852,       -50463.7198588
        10.000300685,       -50447.5125922
       10.0003342066,       -50429.5225342
       10.0003714157,       -50409.5535797
       10.0004127178,       -50387.3880525
       10.0004585631,       -50362.7843323
       10.0005094514,       -50335.4742214
       10.0005659374,       -50305.1600212
       10.0006286369,       -50271.5112872
       10.0006982333,       -50234.1612272
       10.0007754853,       -50192.7027035
        10.000861235,       -50146.6837951
       10.0009564173,       -50095.6028721
       10.0010620695,       -50038.9031283
       10.0011793435,       -49975.9665125
       10.0013095176,       -49906.1069924
       10.0014540109,       -49828.5630778
       10.0016143985,       -49742.4895222
       10.0017924287,       -49646.9481108
       10.0019900422,       -49540.8974369
       10.0022093932,       -49423.1815539
       10.0024528728,         -49292.51738
       10.0027231351,       -49147.4807194
       10.0030231263,       -48986.4907469
       10.0033561166,       -48807.7927893
       10.0037257358,       -48609.4392163
        10.004136013,       -48389.2682353
       10.0045914208,        -48144.880362
       10.0050969235,       -47873.6123147
       10.0056580314,       -47572.5080563
       10.0062808612,       -47238.2866778
       10.0069722023,        -46867.306794
       10.0077395909,       -46455.5270883
       10.0085913923,       -45998.4626255
       10.0095368917,       -45491.1365299
       10.0105863962,       -44928.0266263
       10.0117513461,       -44303.0066744
       10.0130444406,       -43609.2819155
       10.0144797754,       -42839.3188599
        10.016072997,       -41984.7696676
        10.017841473,       -41036.3923133
       10.0198044814,       -39983.9693532
       10.0219834207,       -38816.2312546
       10.0244020433,       -37520.7962989
       10.0270867145,       -36084.1507059
       10.0300666994,       -34491.7148507
       10.0333744827,       -32728.0832263
       10.0370461221,       -30777.6019436
       10.0411216419,       -28625.5784121
       10.0456454689,       -26260.6190248
       10.0506669168,       -23678.8330635
        10.056240724,       -20890.7490951
         10.06242765,       -17931.2773332
       10.0692951379,       -14871.0862375
       10.0769180494,       -11823.8829554
       10.0853794812,       -8940.24016108
       10.0947716705,       -6380.57834926
       10.1051970006,       -4272.40526327
        10.116769117,       -2672.71705816
       10.1296141662,       -1557.80896193
       10.1438721708,       -844.214342958
        10.159698556,        -424.37403112
       10.1772658435,       -197.233207815
       10.1967655326,       -84.3723978197
       10.2184101876,       -33.0333318134
       10.2424357545,       -11.7585063267
       10.2691041339,       -3.77740718943
        10.298706035,       -1.08649560425
       10.3315641452,      -0.277411158141
       10.3680366475,     -0.0622104865895
       10.4085211251,     -0.0119855838629
       10.4534588952,    -0.00178241628026
         10.50333982,   -7.80510449821e-06
       10.5587076465,   -0.000277069704526
        10.620165934,   -0.000311528325985
       10.6883846331,   -0.000315239137649
       10.7641073891,   -0.000315557646296
       10.8481596482,   -0.000315565010597
       10.9414576559,   -0.000315551283695
       11.0450184444,   -0.000315539040335
       11.1599709196,   -0.000315529496194
       11.2875681671,   -0.000315522384721
       11.4292011119,   -0.000315517313397
       11.5864136805,   -0.000315513866089
       11.7609196318,   -0.000315511643277
       11.9546212376,   -0.000315510291939
       12.1696300201,   -0.000315509521063
       12.4082897686,   -0.000315509110827
       12.6732020895,   -0.000315508907753
       12.9672547657,   -0.000315508814323
       13.2936532363,   -0.000315508775699
       13.6559555387,   -0.000315508761335
       14.0581110943,   -0.000315508755951
        14.504503761,   -0.000315508754024
       14.9999996211,   -0.000315508752928
       15.2317110533,   -0.000315508753539
       15.4750080571,   -0.000315508754071
       15.7304699111,   -0.000315508753189
       15.9987048577,   -0.000315508752994
       16.2803515518,   -0.000315508753771
       16.5760805805,   -0.000315508753681
       16.8865960607,   -0.000315508753237
       17.2126373148,   -0.000315508753656
       17.5549806317,   -0.000315508753544
       17.9144411144,   -0.000315508753401
       18.2918746213,   -0.000315508753441
       18.6881798035,   -0.000315508753622
       19.1043002448,   -0.000315508753647
       19.5412267082,   -0.000315508753941
       19.9999994948,   -0.000315508754529

