------------------------------------------------------------
 Net Charge Density
------------------------------------------------------------
Position (um), Charge Density (C/cm3)
                   0,      3.766120077e-18
      0.487971470245,                    0
      0.951544366978,                    0
       1.39193861887,                    0
       1.81031315818,                    0
       2.20776897051,                    0
       2.58535199223,                    0
       2.94405586287,                    0
       3.28482453997,                    0
       3.60855478322,                    0
        3.9160985143,                    0
       4.20826505883,                    0
       4.48582327613,   -7.53224015401e-19
       4.74950358257,   -7.53224015401e-19
       4.99999987369,    -1.5064480308e-18
       5.25024593471,    -2.2596720462e-18
       5.48797969268,     -3.766120077e-18
       5.71382676274,   -6.02579212321e-18
       5.92838147931,   -9.03868818481e-18
       6.13220846005,   -1.28048082618e-17
       6.32584409175,    -1.8830600385e-17
       6.50979794186,   -2.71160645544e-17
       6.68455409947,   -3.91676488008e-17
        6.8505724492,   -5.42321291089e-17
       7.00828988145,   -7.38159535093e-17
       7.15812144208,   -9.94255700329e-17
       7.30046142468,   -1.31814202695e-16
       7.43568440815,   -1.72488299527e-16
       7.56414624244,   -2.22201084543e-16
       7.68618498502,   -2.83212229791e-16
       7.80212179047,   -3.56274959285e-16
       7.91226175565,   -4.42895721056e-16
       8.01689472257,    -5.4533418715e-16
       8.11629604115,   -6.64343581583e-16
       8.21072729379,   -8.01430352386e-16
       8.30043698381,    -9.5810094759e-16
       8.38566118932,   -1.13435536719e-15
       8.46662418456,   -1.33245328324e-15
       8.54353903003,   -1.55239469574e-15
       8.61660813323,    -1.7949328287e-15
       8.68602378128,   -2.06082090614e-15
       8.75196864691,   -2.34930570404e-15
       8.81461626927,    -2.6603872224e-15
       8.87413151051,   -2.99481868523e-15
       8.93067098969,    -3.3503404205e-15
       8.98438349491,    -3.7269524282e-15
       9.03541037487,   -4.12540793235e-15
       9.08388591083,    -4.5434472609e-15
       9.12993766999,   -4.98634298195e-15
       9.17368684119,   -5.48045793606e-15
       9.21524855383,   -6.17794337432e-15
       9.25473218085,   -7.81469915978e-15
       9.29224162651,   -1.37131964244e-14
       9.32787559988,   -3.78608051341e-14
       9.36172787459,   -1.35273007374e-13
       9.39388753557,   -5.08554258478e-13
       9.42443921349,    -1.8578714742e-12
       9.45346330752,    -6.4583325205e-12
       9.48103619685,    -2.1275057866e-11
       9.50723044171,   -6.64388533993e-11
       9.53211497433,   -1.96989044511e-10
       9.55575528031,   -5.55562347116e-10
         9.578213571,   -1.49322820213e-09
       9.59954894715,   -3.83223465165e-09
        9.6198175545,   -9.40865706928e-09
       9.63907273148,   -2.21387264695e-08
       9.65736514961,   -5.00157928162e-08
       9.67474294683,   -1.08680062467e-07
       9.69125185419,   -2.27518492679e-07
       9.70693531618,   -4.59641771587e-07
       9.72183460508,   -8.97521269601e-07
       9.73598892953,   -1.69649310065e-06
       9.74943553775,   -3.10865388758e-06
       9.76220981557,   -5.52974626002e-06
       9.77434537949,   -9.56127762286e-06
       9.78587416522,   -1.60890975116e-05
       9.79682651166,   -2.63776845732e-05
       9.80723124078,   -4.21761202669e-05
       9.81711573345,   -6.58267969734e-05
       9.82650600148,   -0.000100361072329
       9.83542675611,   -0.000149557448592
       9.84390147301,   -0.000217928341592
       9.85195245406,   -0.000310593447573
       9.85960088606,   -0.000432995461285
       9.86686689646,   -0.000590423810829
       9.87376960634,   -0.000787341131588
       9.88032718072,    -0.00102655929866
       9.88655687639,    -0.00130838196212
       9.89247508728,    -0.00162989935934
       9.89809738761,    -0.00198465552697
       9.90343857294,     -0.0023628727344
       9.90851269899,    -0.00275229844363
       9.91333311875,    -0.00313956317683
       9.91791251751,    -0.00351177084164
       9.92226294634,    -0.00385796299759
       9.92639585373,    -0.00417014507601
       9.93032211574,    -0.00444371240596
       9.93405206466,    -0.00467729582822
       9.93759551613,     -0.0048721857969
       9.94096179503,    -0.00503155061658
       9.94415975998,    -0.00515964418251
       9.94719782668,    -0.00526113433189
       9.95008399005,    -0.00534061084754
       9.95282584525,    -0.00540227582896
       9.95543060769,    -0.00544978645825
       9.95790513201,    -0.00548620824968
       9.96025593011,    -0.00551403845417
       9.96248918831,    -0.00553526734962
        9.9646107836,    -0.00555145475839
       9.96662629912,     -0.0055638076442
       9.96854103887,    -0.00557325107692
       9.97036004163,    -0.00558048919457
       9.97208809425,    -0.00558605543125
       9.97372974424,    -0.00559035270492
       9.97528931173,    -0.00559368489814
       9.97677090085,     -0.0055962811398
       9.97817841051,    -0.00559831432404
       9.97951554469,    -0.00559991511996
       9.98078582215,    -0.00560118251064
       9.98199258575,     -0.0056021916919
       9.98313901117,    -0.00560299997966
       9.98422811531,    -0.00560365122409
       9.98526276425,    -0.00560417910833
       9.98624568074,    -0.00560460961627
        9.9871794514,    -0.00560496288148
       9.98806653354,     -0.0056052545758
       9.98890926156,    -0.00560549695476
       9.98970985319,    -0.00560569964731
       9.99047041523,    -0.00560587025411
       9.99119294917,    -0.00560601480262
       9.99187935642,    -0.00560613809458
        9.9925314433,    -0.00560624397227
       9.99315092584,    -0.00560633552349
       9.99373943425,    -0.00560641523997
       9.99429851724,     -0.0056064851404
       9.99482964608,    -0.00560654686629
       9.99533421848,    -0.00560660175717
       9.99581356226,    -0.00560665090961
       9.99626893885,    -0.00560669522404
       9.99670154661,    -0.00560673544183
       9.99711252398,    -0.00560677217487
       9.99750295249,    -0.00560680592936
       9.99787385957,     -0.0056068371249
       9.99822622129,    -0.00560686610988
       9.99856096493,    -0.00560689317413
       9.99887897139,    -0.00560691855905
       9.99918107752,    -0.00560694246605
       9.99946807835,    -0.00560696506337
       9.99974072913,    -0.00560698649178
       9.99999974738,   -6.70815898536e-09
       10.0000001659,     0.00560699342025
       10.0000208413,     0.00560699179382
       10.0000425137,     0.00560699008918
        10.000066641,      0.0056069881917
        10.000092632,      0.0056069861479
       10.0001150737,     0.00560698438336
       10.0001427241,     0.00560698220943
       10.0001767922,     0.00560697953109
       10.0002187675,     0.00560697623117
       10.0002432783,     0.00560697430419
       10.0002704852,     0.00560697216513
        10.000300685,     0.00560696979057
       10.0003342066,     0.00560696715447
       10.0003714157,     0.00560696422785
       10.0004127178,     0.00560696097843
       10.0004585631,     0.00560695737028
       10.0005094514,     0.00560695336328
       10.0005659374,     0.00560694891267
       10.0006286369,     0.00560694396837
       10.0006982333,     0.00560693847426
       10.0007754853,     0.00560693236734
        10.000861235,     0.00560692557667
       10.0009564173,     0.00560691802209
       10.0010620695,     0.00560690961273
       10.0011793435,     0.00560690024503
       10.0013095176,     0.00560688980042
       10.0014540109,     0.00560687814219
       10.0016143985,      0.0056068651117
       10.0017924287,     0.00560685052325
       10.0019900422,     0.00560683415762
       10.0022093932,     0.00560681575332
       10.0024528728,     0.00560679499521
       10.0027231351,     0.00560677149912
       10.0030231263,     0.00560674479115
       10.0033561166,      0.0056067142796
       10.0037257358,      0.0056066792166
        10.004136013,     0.00560663864504
       10.0045914208,     0.00560659132504
       10.0050969235,     0.00560653563056
       10.0056580314,     0.00560646940319
       10.0062808612,     0.00560638974272
       10.0069722023,       0.005606292704
       10.0077395909,     0.00560617285256
       10.0085913923,     0.00560602260451
       10.0095368917,     0.00560583123193
       10.0105863962,     0.00560558334231
       10.0117513461,     0.00560525651781
       10.0130444406,     0.00560481759323
       10.0144797754,     0.00560421669533
        10.016072997,     0.00560337754981
        10.017841473,     0.00560218148502
       10.0198044814,     0.00560044067008
       10.0219834207,     0.00559785280405
       10.0244020433,     0.00559392368225
       10.0270867145,     0.00558783415613
       10.0300666994,     0.00557821168244
       10.0333744827,     0.00556274171945
       10.0370461221,     0.00553752178117
       10.0411216419,     0.00549603510088
       10.0456454689,     0.00542765147445
       10.0506669168,     0.00531577459998
        10.056240724,     0.00513637062376
         10.06242765,     0.00485881370531
       10.0692951379,     0.00445231169244
       10.0769180494,     0.00390048819717
       10.0853794812,     0.00322064538787
       10.0947716705,     0.00247400781329
       10.1051970006,     0.00175139364417
        10.116769117,     0.00113711769735
       10.1296141662,    0.000676537918804
       10.1438721708,    0.000369251742082
        10.159698556,    0.000185059817296
       10.1772658435,    8.51132276647e-05
       10.1967655326,    3.58259491751e-05
       10.2184101876,     1.3736052068e-05
       10.2424357545,    4.76702277718e-06
       10.2691041339,    1.48639779671e-06
        10.298706035,    4.13067673615e-07
       10.3315641452,    1.01453062882e-07
       10.3680366475,     2.1837470183e-08
       10.4085211251,    4.08535466836e-09
       10.4534588952,    6.58981022036e-10
         10.50333982,    9.09552970787e-11
       10.5587076465,    1.06635573421e-11
        10.620165934,    1.05220498995e-12
       10.6883846331,    8.44266202142e-14
       10.7641073891,    3.46633691887e-15
       10.8481596482,   -1.63524933744e-15
       10.9414576559,   -1.43941109343e-15
       11.0450184444,   -1.03116367708e-15
       11.1599709196,   -7.03511230384e-16
       11.2875681671,    -4.6021987341e-16
       11.4292011119,   -2.87731573883e-16
       11.5864136805,   -1.70981851496e-16
       11.7609196318,   -9.56594499559e-17
       11.9546212376,   -5.04660090319e-17
       12.1696300201,   -2.48563925082e-17
       12.4082897686,    -1.1298360231e-17
       12.6732020895,    -4.5193440924e-18
       12.9672547657,    -1.5064480308e-18
       13.2936532363,   -7.53224015401e-19
       13.6559555387,                    0
       14.0581110943,                    0
        14.504503761,                    0
       14.9999996211,                    0
       15.2317110533,                    0
       15.4750080571,                    0
       15.7304699111,                    0
       15.9987048577,                    0
       16.2803515518,                    0
       16.5760805805,                    0
       16.8865960607,                    0
       17.2126373148,                    0
       17.5549806317,                    0
       17.9144411144,                    0
       18.2918746213,                    0
       18.6881798035,                    0
       19.1043002448,                    0
       19.5412267082,                    0
       19.9999994948,    1.05451362156e-17

