------------------------------------------------------------
 E - Electric Field
------------------------------------------------------------
Position (um), Electric Field (V/cm)
                   0,    -2.3628396888e-06
      0.487971470245,   -2.36283999287e-06
      0.951544366978,   -2.36284001635e-06
       1.39193861887,   -2.36283987414e-06
       1.81031315818,   -2.36283944899e-06
       2.20776897051,   -2.36283968872e-06
       2.58535199223,    -2.3628394175e-06
       2.94405586287,   -2.36283937788e-06
       3.28482453997,   -2.36283957846e-06
       3.60855478322,   -2.36284010328e-06
        3.9160985143,   -2.36284055124e-06
       4.20826505883,    -2.3628390903e-06
       4.48582327613,   -2.36283881921e-06
       4.74950358257,   -2.36283951652e-06
       4.99999987369,   -2.36283928794e-06
       5.25024593471,   -2.36283878204e-06
       5.48797969268,   -2.36283952173e-06
       5.71382676274,   -2.36284108255e-06
       5.92838147931,   -2.36284123518e-06
       6.13220846005,    -2.3628400783e-06
       6.32584409175,   -2.36283886053e-06
       6.50979794186,   -2.36283906072e-06
       6.68455409947,   -2.36284025443e-06
        6.8505724492,   -2.36284110663e-06
       7.00828988145,    -2.3628394892e-06
       7.15812144208,   -2.36284052568e-06
       7.30046142468,    -2.3628407429e-06
       7.43568440815,   -2.36283716127e-06
       7.56414624244,   -2.36283978245e-06
       7.68618498502,   -2.36284225005e-06
       7.80212179047,   -2.36284042998e-06
       7.91226175565,   -2.36284006759e-06
       8.01689472257,    -2.3628390738e-06
       8.11629604115,   -2.36283622715e-06
       8.21072729379,   -2.36283664317e-06
       8.30043698381,   -2.36283838884e-06
       8.38566118932,   -2.36284420601e-06
       8.46662418456,   -2.36284299626e-06
       8.54353903003,   -2.36283724272e-06
       8.61660813323,   -2.36284056861e-06
       8.68602378128,   -2.36283921879e-06
       8.75196864691,   -2.36283511117e-06
       8.81461626927,   -2.36284108494e-06
       8.87413151051,   -2.36283793619e-06
       8.93067098969,   -2.36283843815e-06
       8.98438349491,   -2.36284210828e-06
       9.03541037487,   -2.36283679978e-06
       9.08388591083,   -2.36284400867e-06
       9.12993766999,   -2.36284053009e-06
       9.17368684119,   -2.36283880193e-06
       9.21524855383,   -2.36283971895e-06
       9.25473218085,   -2.36284610377e-06
       9.29224162651,   -2.36284739421e-06
       9.32787559988,   -2.36283463436e-06
       9.36172787459,   -2.36284217105e-06
       9.39388753557,   -2.36283502779e-06
       9.42443921349,   -2.36283668902e-06
       9.45346330752,   -2.36284604316e-06
       9.48103619685,   -2.36283775424e-06
       9.50723044171,   -2.36282752912e-06
       9.53211497433,    -2.3628403569e-06
       9.55575528031,    -2.3628403071e-06
         9.578213571,    -2.3628423518e-06
       9.59954894715,   -2.36285181795e-06
        9.6198175545,    -2.3628247622e-06
       9.63907273148,   -2.36283166891e-06
       9.65736514961,    -2.3628563931e-06
       9.67474294683,   -2.36284327696e-06
       9.69125185419,   -2.36284789037e-06
       9.70693531618,   -2.36285062867e-06
       9.72183460508,   -2.36282230361e-06
       9.73598892953,   -2.36290598065e-06
       9.74943553775,   -2.36321317226e-06
       9.76220981557,   -2.36480164864e-06
       9.77434537949,   -2.37221329052e-06
       9.78587416522,   -2.40490601709e-06
       9.79682651166,   -2.54010466311e-06
       9.80723124078,   -3.06475604468e-06
       9.81711573345,   -4.98060538636e-06
       9.82650600148,   -1.15763152613e-05
       9.83542675611,   -3.30272993413e-05
       9.84390147301,   -9.90635260296e-05
       9.85195245406,   -0.000291872564856
       9.85960088606,   -0.000826848950083
       9.86686689646,    -0.00224018050678
       9.87376960634,    -0.00580209294377
       9.88032718072,     -0.0143816415156
       9.88655687639,     -0.0341687806717
       9.89247508728,     -0.0779427601733
       9.89809738761,      -0.170993746939
       9.90343857294,       -0.36137959088
       9.90851269899,      -0.736933443443
       9.91333311875,       -1.45229644182
       9.91791251751,       -2.77014980933
       9.92226294634,       -5.12162276078
       9.92639585373,       -9.19136230163
       9.93032211574,       -16.0327341693
       9.93405206466,       -27.2178328725
       9.93759551613,       -45.0251854007
       9.94096179503,       -72.6650662538
       9.94415975998,       -114.538117659
       9.94719782668,        -176.51751902
       9.95008399005,       -266.238442029
       9.95282584525,       -393.371297296
       9.95543060769,          -569.847871
       9.95790513201,       -810.002687238
       9.96025593011,       -1130.58697926
       9.96248918831,       -1550.61105758
        9.9646107836,       -2090.97448951
       9.96662629912,       -2773.85428537
       9.96854103887,       -3621.84071959
       9.97036004163,       -4656.83880477
       9.97208809425,       -5898.78902646
       9.97372974424,       -7364.29925577
       9.97528931173,       -9065.31358443
       9.97677090085,       -11007.9643401
       9.97817841051,       -13191.7525426
       9.97951554469,       -15609.1749468
       9.98078582215,       -18245.8641259
       9.98199258575,       -21081.2402783
       9.98313901117,       -24089.6033875
       9.98422811531,       -27241.5371552
       9.98526276425,       -30505.4635454
       9.98624568074,       -33849.1837616
        9.9871794514,       -37241.2651752
       9.98806653354,       -40652.1753496
       9.98890926156,       -44055.1125845
       9.98970985319,       -47426.5271266
       9.99047041523,       -50746.3615222
       9.99119294917,       -53998.0597766
       9.99187935642,       -57168.4036854
        9.9925314433,       -60247.2336741
       9.99315092584,        -63227.104211
       9.99373943425,       -66102.9135761
       9.99429851724,       -68871.5369404
       9.99482964608,       -71531.4818894
       9.99533421848,       -74082.5774821
       9.99581356226,       -76525.7018826
       9.99626893885,       -78862.5493743
       9.99670154661,       -81095.4348754
       9.99711252398,       -83227.1325387
       9.99750295249,       -85260.7443208
       9.99787385957,       -87199.5942529
       9.99822622129,       -89047.1443384
       9.99856096493,       -90806.9283732
       9.99887897139,       -92482.5004412
       9.99918107752,       -94077.3953074
       9.99946807835,       -95595.0983768
       9.99974072913,       -97039.0232912
       9.99999974738,       -98342.9916512
       10.0000001659,       -98343.8646545
       10.0000006305,       -98343.5869908
       10.0000011463,       -98343.2787907
       10.0000017187,       -98342.9366947
       10.0000023541,       -98342.5569772
       10.0000030594,        -98342.135503
       10.0000038423,       -98341.6676791
       10.0000047113,       -98341.1484107
       10.0000056759,       -98340.5720441
       10.0000067466,       -98339.9323024
       10.0000079351,       -98339.2222198
       10.0000092543,       -98338.4340662
       10.0000107186,       -98337.5592632
        10.000012344,       -98336.5882901
       10.0000141482,       -98335.5105811
       10.0000161508,       -98334.3144116
       10.0000183738,       -98332.9867721
       10.0000208413,       -98331.5132258
       10.0000235801,       -98329.8777532
       10.0000266203,       -98328.0625803
       10.0000299949,        -98326.047987
       10.0000337407,       -98323.8120942
       10.0000378985,       -98321.3306293
       10.0000425137,       -98318.5766661
       10.0000476366,       -98315.5203359
       10.0000533229,       -98312.1285091
       10.0000596348,       -98308.3644417
        10.000066641,       -98304.1873843
       10.0000744178,       -98299.5521497
       10.0000830502,       -98294.4086352
        10.000092632,       -98288.7012939
       10.0001032679,       -98282.3685508
       10.0001150737,       -98275.3421577
       10.0001281782,       -98267.5464817
       10.0001427241,       -98258.8977193
       10.0001588701,       -98249.3030301
       10.0001767922,       -98238.6595824
       10.0001966857,       -98226.8535011
       10.0002187675,       -98213.7587099
       10.0002432783,       -98199.2356575
       10.0002704852,        -98183.129917
        10.000300685,       -98165.2706469
       10.0003342066,       -98145.4689006
       10.0003714157,       -98123.5157716
       10.0004127178,       -98099.1803573
       10.0004585631,       -98072.2075264
       10.0005094514,       -98042.3154701
       10.0005659374,       -98009.1930163
       10.0006286369,       -97972.4966822
       10.0006982333,       -97931.8474382
       10.0007754853,       -97886.8271508
        10.000861235,       -97836.9746649
       10.0009564173,       -97781.7814818
       10.0010620695,       -97720.6869756
       10.0011793435,        -97653.073083
       10.0013095176,       -97578.2583853
       10.0014540109,       -97495.4914839
       10.0016143985,       -97403.9435522
       10.0017924287,       -97302.6999222
       10.0019900422,       -97190.7505415
       10.0022093932,       -97066.9791056
       10.0024528728,       -96930.1506497
       10.0027231351,       -96778.8973585
       10.0030231263,       -96611.7023372
       10.0033561166,       -96426.8810814
       10.0037257358,       -96222.5603934
        10.004136013,       -95996.6545191
       10.0045914208,       -95746.8383246
       10.0050969235,       -95470.5173968
       10.0056580314,       -95164.7950236
       10.0062808612,       -94826.4360774
       10.0069722023,        -94451.827868
       10.0077395909,       -94036.9380275
       10.0085913923,       -93577.2694068
       10.0095368917,       -93067.8117968
       10.0105863962,       -92502.9900255
       10.0117513461,       -91876.6076597
       10.0130444406,       -91181.7851917
       10.0144797754,       -90410.8913015
        10.016072997,       -89555.4656014
        10.017841473,       -88606.1312517
       10.0198044814,       -87552.4959655
       10.0219834207,       -86383.0401503
       10.0244020433,       -85084.9911585
       10.0270867145,       -83644.1827397
       10.0300666994,       -82044.8987366
       10.0333744827,       -80269.6998358
       10.0370461221,       -78299.2318325
       10.0411216419,       -76112.0134632
       10.0456454689,       -73684.2014828
       10.0506669168,        -70989.330327
        10.056240724,       -67998.0234165
         10.06242765,       -64677.6729284
       10.0692951379,       -60992.0849066
       10.0769180494,       -56901.0886606
       10.0853794812,       -52360.1258467
       10.0947716705,       -47319.9497567
       10.1051970006,       -41727.3110281
        10.116769117,       -35531.6921064
       10.1296141662,        -28720.896135
       10.1438721708,       -21448.2282359
        10.159698556,       -14274.3200199
       10.1772658435,       -8189.78629146
       10.1967655326,       -3996.10792595
       10.2184101876,       -1674.94569032
       10.2424357545,       -614.372333545
       10.2691041339,       -199.656194742
        10.298706035,       -57.6618260801
       10.3315641452,       -14.7520722525
       10.3680366475,       -3.32222468595
       10.4085211251,      -0.653659198527
       10.4534588952,      -0.111494890071
         10.50333982,     -0.0163652088232
       10.5587076465,    -0.00205549769655
        10.620165934,   -0.000222967426313
       10.6883846331,   -2.44595482385e-05
       10.7641073891,   -6.37691953626e-06
       10.8481596482,   -4.99902467612e-06
       10.9414576559,   -4.91160269015e-06
       11.0450184444,   -4.90700301798e-06
       11.1599709196,   -4.90680106842e-06
       11.2875681671,   -4.90679283698e-06
       11.4292011119,   -4.90679245028e-06
       11.5864136805,   -4.90679306231e-06
       11.7609196318,   -4.90679136653e-06
       11.9546212376,   -4.90679197945e-06
       12.1696300201,   -4.90679237498e-06
       12.4082897686,   -4.90679170437e-06
       12.6732020895,   -4.90679222157e-06
       12.9672547657,   -4.90679205107e-06
       13.2936532363,   -4.90679193826e-06
       13.6559555387,    -4.9067915653e-06
       14.0581110943,   -4.90679232075e-06
        14.504503761,   -4.90679240441e-06
       14.9999996211,   -4.90679166957e-06
       15.2317110533,   -4.90679119315e-06
       15.4750080571,   -4.90679178497e-06
       15.7304699111,   -4.90679232501e-06
       15.9987048577,     -4.906792253e-06
       16.2803515518,    -4.9067924314e-06
       16.5760805805,   -4.90679166238e-06
       16.8865960607,   -4.90679180647e-06
       17.2126373148,    -4.9067921473e-06
       17.5549806317,   -4.90679194141e-06
       17.9144411144,   -4.90679191456e-06
       18.2918746213,   -4.90679204784e-06
       18.6881798035,   -4.90679226031e-06
       19.1043002448,   -4.90679173942e-06
       19.5412267082,   -4.90679143143e-06
       19.9999994948,   -4.90679127794e-06

